digraph Tree {
node [shape=box, style="filled, rounded", color="black", fontname=helvetica] ;
edge [fontname=helvetica] ;
0 [label="Title <= 1.5\ngini = 0.5\nsamples = 684\nvalue = [342, 342]\nclass = Died", fillcolor="#ffffff"] ;
1 [label="Fare <= 26.144\ngini = 0.354\nsamples = 353\nvalue = [272, 81]\nclass = Died", fillcolor="#eda774"] ;
0 -> 1 [labeldistance=2.5, labelangle=45, headlabel="True"] ;
2 [label="Fare <= 7.91\ngini = 0.256\nsamples = 259\nvalue = [220, 39]\nclass = Died", fillcolor="#ea975c"] ;
1 -> 2 ;
3 [label="Age <= 32.5\ngini = 0.205\nsamples = 121\nvalue = [107, 14]\nclass = Died", fillcolor="#e89153"] ;
2 -> 3 ;
4 [label="Age <= 19.5\ngini = 0.247\nsamples = 97\nvalue = [83, 14]\nclass = Died", fillcolor="#e9965a"] ;
3 -> 4 ;
5 [label="gini = 0.0\nsamples = 12\nvalue = [12, 0]\nclass = Died", fillcolor="#e58139"] ;
4 -> 5 ;
6 [label="Age <= 27.5\ngini = 0.275\nsamples = 85\nvalue = [71, 14]\nclass = Died", fillcolor="#ea9a60"] ;
4 -> 6 ;
7 [label="gini = 0.383\nsamples = 31\nvalue = [23, 8]\nclass = Died", fillcolor="#eead7e"] ;
6 -> 7 ;
8 [label="gini = 0.198\nsamples = 54\nvalue = [48, 6]\nclass = Died", fillcolor="#e89152"] ;
6 -> 8 ;
9 [label="gini = 0.0\nsamples = 24\nvalue = [24, 0]\nclass = Died", fillcolor="#e58139"] ;
3 -> 9 ;
10 [label="Fare <= 7.988\ngini = 0.297\nsamples = 138\nvalue = [113, 25]\nclass = Died", fillcolor="#eb9d65"] ;
2 -> 10 ;
11 [label="Age <= 38.0\ngini = 0.486\nsamples = 12\nvalue = [7, 5]\nclass = Died", fillcolor="#f8dbc6"] ;
10 -> 11 ;
12 [label="FamilySize <= 2.5\ngini = 0.42\nsamples = 10\nvalue = [7, 3]\nclass = Died", fillcolor="#f0b78e"] ;
11 -> 12 ;
13 [label="gini = 0.469\nsamples = 8\nvalue = [5, 3]\nclass = Died", fillcolor="#f5cdb0"] ;
12 -> 13 ;
14 [label="gini = 0.0\nsamples = 2\nvalue = [2, 0]\nclass = Died", fillcolor="#e58139"] ;
12 -> 14 ;
15 [label="gini = 0.0\nsamples = 2\nvalue = [0, 2]\nclass = Survived", fillcolor="#399de5"] ;
11 -> 15 ;
16 [label="Has_Cabin <= 0.5\ngini = 0.267\nsamples = 126\nvalue = [106, 20]\nclass = Died", fillcolor="#ea995e"] ;
10 -> 16 ;
17 [label="Embarked <= 0.5\ngini = 0.25\nsamples = 123\nvalue = [105, 18]\nclass = Died", fillcolor="#e9975b"] ;
16 -> 17 ;
18 [label="gini = 0.444\nsamples = 9\nvalue = [6, 3]\nclass = Died", fillcolor="#f2c09c"] ;
17 -> 18 ;
19 [label="gini = 0.229\nsamples = 114\nvalue = [99, 15]\nclass = Died", fillcolor="#e99457"] ;
17 -> 19 ;
20 [label="Age <= 35.0\ngini = 0.444\nsamples = 3\nvalue = [1, 2]\nclass = Survived", fillcolor="#9ccef2"] ;
16 -> 20 ;
21 [label="gini = 0.0\nsamples = 2\nvalue = [0, 2]\nclass = Survived", fillcolor="#399de5"] ;
20 -> 21 ;
22 [label="gini = 0.0\nsamples = 1\nvalue = [1, 0]\nclass = Died", fillcolor="#e58139"] ;
20 -> 22 ;
23 [label="Fare <= 26.775\ngini = 0.494\nsamples = 94\nvalue = [52, 42]\nclass = Died", fillcolor="#fae7d9"] ;
1 -> 23 ;
24 [label="Age <= 53.5\ngini = 0.337\nsamples = 14\nvalue = [3, 11]\nclass = Survived", fillcolor="#6fb8ec"] ;
23 -> 24 ;
25 [label="Age <= 31.0\ngini = 0.153\nsamples = 12\nvalue = [1, 11]\nclass = Survived", fillcolor="#4ba6e7"] ;
24 -> 25 ;
26 [label="Has_Cabin <= 0.5\ngini = 0.444\nsamples = 3\nvalue = [1, 2]\nclass = Survived", fillcolor="#9ccef2"] ;
25 -> 26 ;
27 [label="gini = 0.0\nsamples = 1\nvalue = [0, 1]\nclass = Survived", fillcolor="#399de5"] ;
26 -> 27 ;
28 [label="gini = 0.5\nsamples = 2\nvalue = [1, 1]\nclass = Died", fillcolor="#ffffff"] ;
26 -> 28 ;
29 [label="gini = 0.0\nsamples = 9\nvalue = [0, 9]\nclass = Survived", fillcolor="#399de5"] ;
25 -> 29 ;
30 [label="gini = 0.0\nsamples = 2\nvalue = [2, 0]\nclass = Died", fillcolor="#e58139"] ;
24 -> 30 ;
31 [label="Has_Cabin <= 0.5\ngini = 0.475\nsamples = 80\nvalue = [49, 31]\nclass = Died", fillcolor="#f5d1b6"] ;
23 -> 31 ;
32 [label="FamilySize <= 1.5\ngini = 0.337\nsamples = 28\nvalue = [22, 6]\nclass = Died", fillcolor="#eca36f"] ;
31 -> 32 ;
33 [label="Pclass <= 2.5\ngini = 0.5\nsamples = 12\nvalue = [6, 6]\nclass = Died", fillcolor="#ffffff"] ;
32 -> 33 ;
34 [label="gini = 0.245\nsamples = 7\nvalue = [6, 1]\nclass = Died", fillcolor="#e9965a"] ;
33 -> 34 ;
35 [label="gini = 0.0\nsamples = 5\nvalue = [0, 5]\nclass = Survived", fillcolor="#399de5"] ;
33 -> 35 ;
36 [label="gini = 0.0\nsamples = 16\nvalue = [16, 0]\nclass = Died", fillcolor="#e58139"] ;
32 -> 36 ;
37 [label="Age <= 43.5\ngini = 0.499\nsamples = 52\nvalue = [27, 25]\nclass = Died", fillcolor="#fdf6f0"] ;
31 -> 37 ;
38 [label="Age <= 24.5\ngini = 0.484\nsamples = 34\nvalue = [14, 20]\nclass = Survived", fillcolor="#c4e2f7"] ;
37 -> 38 ;
39 [label="gini = 0.408\nsamples = 7\nvalue = [5, 2]\nclass = Died", fillcolor="#efb388"] ;
38 -> 39 ;
40 [label="gini = 0.444\nsamples = 27\nvalue = [9, 18]\nclass = Survived", fillcolor="#9ccef2"] ;
38 -> 40 ;
41 [label="Age <= 47.5\ngini = 0.401\nsamples = 18\nvalue = [13, 5]\nclass = Died", fillcolor="#efb185"] ;
37 -> 41 ;
42 [label="gini = 0.0\nsamples = 6\nvalue = [6, 0]\nclass = Died", fillcolor="#e58139"] ;
41 -> 42 ;
43 [label="gini = 0.486\nsamples = 12\nvalue = [7, 5]\nclass = Died", fillcolor="#f8dbc6"] ;
41 -> 43 ;
44 [label="FamilySize <= 4.5\ngini = 0.334\nsamples = 331\nvalue = [70, 261]\nclass = Survived", fillcolor="#6eb7ec"] ;
0 -> 44 [labeldistance=2.5, labelangle=-45, headlabel="False"] ;
45 [label="Title <= 4.5\ngini = 0.27\nsamples = 299\nvalue = [48, 251]\nclass = Survived", fillcolor="#5fb0ea"] ;
44 -> 45 ;
46 [label="Pclass <= 2.5\ngini = 0.229\nsamples = 280\nvalue = [37, 243]\nclass = Survived", fillcolor="#57ace9"] ;
45 -> 46 ;
47 [label="Fare <= 28.856\ngini = 0.068\nsamples = 170\nvalue = [6, 164]\nclass = Survived", fillcolor="#40a1e6"] ;
46 -> 47 ;
48 [label="Fare <= 28.231\ngini = 0.133\nsamples = 70\nvalue = [5, 65]\nclass = Survived", fillcolor="#48a5e7"] ;
47 -> 48 ;
49 [label="gini = 0.109\nsamples = 69\nvalue = [4, 65]\nclass = Survived", fillcolor="#45a3e7"] ;
48 -> 49 ;
50 [label="gini = 0.0\nsamples = 1\nvalue = [1, 0]\nclass = Died", fillcolor="#e58139"] ;
48 -> 50 ;
51 [label="Age <= 2.5\ngini = 0.02\nsamples = 100\nvalue = [1, 99]\nclass = Survived", fillcolor="#3b9ee5"] ;
47 -> 51 ;
52 [label="gini = 0.32\nsamples = 5\nvalue = [1, 4]\nclass = Survived", fillcolor="#6ab6ec"] ;
51 -> 52 ;
53 [label="gini = 0.0\nsamples = 95\nvalue = [0, 95]\nclass = Survived", fillcolor="#399de5"] ;
51 -> 53 ;
54 [label="Age <= 17.0\ngini = 0.405\nsamples = 110\nvalue = [31, 79]\nclass = Survived", fillcolor="#87c3ef"] ;
46 -> 54 ;
55 [label="Fare <= 10.798\ngini = 0.191\nsamples = 28\nvalue = [3, 25]\nclass = Survived", fillcolor="#51a9e8"] ;
54 -> 55 ;
56 [label="gini = 0.375\nsamples = 8\nvalue = [2, 6]\nclass = Survived", fillcolor="#7bbeee"] ;
55 -> 56 ;
57 [label="gini = 0.095\nsamples = 20\nvalue = [1, 19]\nclass = Survived", fillcolor="#43a2e6"] ;
55 -> 57 ;
58 [label="Age <= 36.5\ngini = 0.45\nsamples = 82\nvalue = [28, 54]\nclass = Survived", fillcolor="#a0d0f2"] ;
54 -> 58 ;
59 [label="gini = 0.436\nsamples = 78\nvalue = [25, 53]\nclass = Survived", fillcolor="#96cbf1"] ;
58 -> 59 ;
60 [label="gini = 0.375\nsamples = 4\nvalue = [3, 1]\nclass = Died", fillcolor="#eeab7b"] ;
58 -> 60 ;
61 [label="Has_Cabin <= 0.5\ngini = 0.488\nsamples = 19\nvalue = [11, 8]\nclass = Died", fillcolor="#f8ddc9"] ;
45 -> 61 ;
62 [label="Fare <= 86.625\ngini = 0.165\nsamples = 11\nvalue = [10, 1]\nclass = Died", fillcolor="#e88e4d"] ;
61 -> 62 ;
63 [label="gini = 0.0\nsamples = 10\nvalue = [10, 0]\nclass = Died", fillcolor="#e58139"] ;
62 -> 63 ;
64 [label="gini = 0.0\nsamples = 1\nvalue = [0, 1]\nclass = Survived", fillcolor="#399de5"] ;
62 -> 64 ;
65 [label="FamilySize <= 2.5\ngini = 0.219\nsamples = 8\nvalue = [1, 7]\nclass = Survived", fillcolor="#55abe9"] ;
61 -> 65 ;
66 [label="gini = 0.0\nsamples = 7\nvalue = [0, 7]\nclass = Survived", fillcolor="#399de5"] ;
65 -> 66 ;
67 [label="gini = 0.0\nsamples = 1\nvalue = [1, 0]\nclass = Died", fillcolor="#e58139"] ;
65 -> 67 ;
68 [label="Pclass <= 2.5\ngini = 0.43\nsamples = 32\nvalue = [22, 10]\nclass = Died", fillcolor="#f1ba93"] ;
44 -> 68 ;
69 [label="gini = 0.0\nsamples = 6\nvalue = [0, 6]\nclass = Survived", fillcolor="#399de5"] ;
68 -> 69 ;
70 [label="FamilySize <= 6.5\ngini = 0.26\nsamples = 26\nvalue = [22, 4]\nclass = Died", fillcolor="#ea985d"] ;
68 -> 70 ;
71 [label="gini = 0.0\nsamples = 16\nvalue = [16, 0]\nclass = Died", fillcolor="#e58139"] ;
70 -> 71 ;
72 [label="FamilySize <= 7.5\ngini = 0.48\nsamples = 10\nvalue = [6, 4]\nclass = Died", fillcolor="#f6d5bd"] ;
70 -> 72 ;
73 [label="Fare <= 31.331\ngini = 0.49\nsamples = 7\nvalue = [3, 4]\nclass = Survived", fillcolor="#cee6f8"] ;
72 -> 73 ;
74 [label="gini = 0.375\nsamples = 4\nvalue = [3, 1]\nclass = Died", fillcolor="#eeab7b"] ;
73 -> 74 ;
75 [label="gini = 0.0\nsamples = 3\nvalue = [0, 3]\nclass = Survived", fillcolor="#399de5"] ;
73 -> 75 ;
76 [label="gini = 0.0\nsamples = 3\nvalue = [3, 0]\nclass = Died", fillcolor="#e58139"] ;
72 -> 76 ;
}